digraph Tree {
node [shape=box] ;
0 [label="Sex <= 0.5\nentropy = 0.961\nsamples = 891\nvalue = [549, 342]"] ;
1 [label="Pclass <= 1.5\nentropy = 0.699\nsamples = 577\nvalue = [468, 109]"] ;
0 -> 1 [labeldistance=2.5, labelangle=45, headlabel="True"] ;
2 [label="Age <= 17.5\nentropy = 0.95\nsamples = 122\nvalue = [77, 45]"] ;
1 -> 2 ;
3 [label="entropy = 0.0\nsamples = 4\nvalue = [0, 4]"] ;
2 -> 3 ;
4 [label="entropy = 0.932\nsamples = 118\nvalue = [77, 41]"] ;
2 -> 4 ;
5 [label="Age <= 9.5\nentropy = 0.586\nsamples = 455\nvalue = [391, 64]"] ;
1 -> 5 ;
6 [label="entropy = 0.987\nsamples = 30\nvalue = [13, 17]"] ;
5 -> 6 ;
7 [label="entropy = 0.502\nsamples = 425\nvalue = [378, 47]"] ;
5 -> 7 ;
8 [label="Pclass <= 2.5\nentropy = 0.824\nsamples = 314\nvalue = [81, 233]"] ;
0 -> 8 [labeldistance=2.5, labelangle=-45, headlabel="False"] ;
9 [label="Age <= 2.5\nentropy = 0.299\nsamples = 170\nvalue = [9, 161]"] ;
8 -> 9 ;
10 [label="entropy = 1.0\nsamples = 2\nvalue = [1, 1]"] ;
9 -> 10 ;
11 [label="entropy = 0.276\nsamples = 168\nvalue = [8, 160]"] ;
9 -> 11 ;
12 [label="Age <= 38.5\nentropy = 1.0\nsamples = 144\nvalue = [72, 72]"] ;
8 -> 12 ;
13 [label="entropy = 0.996\nsamples = 132\nvalue = [61, 71]"] ;
12 -> 13 ;
14 [label="entropy = 0.414\nsamples = 12\nvalue = [11, 1]"] ;
12 -> 14 ;
}